svm_type c_svc
kernel_type linear
nr_class 3
total_sv 81
rho -0.552898 0.608771 0.884662
label 3 5 1
probA -3.96762 -3.61573 -4.23725
probB 0.156683 -0.0643174 -0.0742981
nr_sv 18 10 53
SV
0.0781669509375683 0.2054618439599654 51:1 73:1 155:1 237:1 291:1 349:1 385:1 517:1 584:1 
0.003949113552959602 0.008489595024290426 50:1 61:1 126:1 147:1 153:1 164:1 173:1 215:1 217:1 218:1 237:1 309:1 329:1 367:1 379:1 385:1 432:1 
0.04330432698204812 0.1160697589069042 175:1 208:1 219:1 224:1 241:1 293:1 336:1 385:1 386:1 388:1 426:1 465:1 466:1 488:1 530:1 
0.1439359902060068 0.5752488321786038 259:1 356:1 367:1 385:1 
0.03882646166886663 0.1463852264018568 4:1 215:1 220:1 238:1 240:1 262:1 355:1 362:1 379:1 385:1 390:1 490:1 498:1 517:1 
0.02581409393344301 0.1860309870645687 83:1 138:1 195:1 206:1 237:1 257:1 385:1 500:1 
0.1229326834479171 0.1791413257543974 50:1 80:1 83:1 113:1 203:1 278:1 385:1 458:1 
0.004216306373412118 0.02740231895734068 22:1 50:1 51:1 66:1 67:1 124:1 230:1 232:1 236:1 259:1 265:1 338:1 349:1 379:1 385:1 463:1 510:1 529:1 571:1 583:1 
0.01226282655258621 0.02950555018329509 60:1 63:1 71:1 129:1 147:1 156:1 177:1 189:1 191:1 199:1 211:1 224:1 249:1 259:1 275:1 277:1 344:1 352:1 356:1 367:1 379:1 385:1 387:1 404:1 410:1 432:1 466:1 476:1 488:1 510:1 534:1 554:1 573:1 574:1 
0.02133966486023429 0.1360393817782984 18:1 23:1 50:1 92:1 141:1 157:1 210:1 258:1 369:1 377:1 378:1 379:1 385:1 410:1 462:1 468:1 518:1 560:1 579:1 
0.0409076900345128 0.128662357465474 96:1 101:1 193:1 274:1 307:1 347:1 385:1 389:1 444:1 462:1 568:1 578:1 
0.01129403728893005 0.1526627988542943 50:1 75:1 83:1 152:1 237:1 385:1 494:1 564:1 
0.07264302602092279 0.2517007132476696 87:1 336:1 385:1 416:1 451:1 578:1 583:1 
0.04549650654935977 0.1167487464191113 142:1 174:1 197:1 210:1 245:1 364:1 385:1 464:1 548:1 578:1 579:1 580:1 
0 0.05666207281435023 50:1 113:1 119:1 140:1 157:1 203:1 230:1 237:1 295:1 359:1 363:1 379:1 385:1 458:1 549:1 571:1 583:1 
0.001671425152141633 0.01350318537848329 15:1 33:1 138:1 153:1 171:1 221:1 259:1 315:1 356:1 367:1 379:1 385:1 404:1 501:1 559:1 578:1 
0.03635498372300186 0.188846792296938 77:1 237:1 329:1 367:1 379:1 385:1 490:1 587:1 
0.0004678117314595755 0.02991081009846026 62:1 63:1 83:1 107:1 108:1 199:1 231:1 259:1 293:1 325:1 356:1 379:1 385:1 389:1 440:1 444:1 
-0.02022745894703819 0.06522688763617542 5:1 55:1 82:1 123:1 147:1 182:1 183:1 197:1 251:1 252:1 259:1 284:1 379:1 382:1 385:1 388:1 410:1 411:1 413:1 423:1 446:1 456:1 517:1 
-0.05638367601857697 0.08523677422914386 5:1 55:1 96:1 126:1 131:1 177:1 207:1 343:1 385:1 466:1 552:1 
-0.008763511406544496 0.04158373935350036 5:1 25:1 32:1 55:1 60:1 99:1 102:1 135:1 144:1 167:1 190:1 207:1 249:1 354:1 379:1 385:1 410:1 424:1 433:1 510:1 526:1 554:1 
-0.06655771910948466 0.06519600017915844 16:1 46:1 64:1 142:1 156:1 267:1 269:1 285:1 312:1 315:1 370:1 379:1 383:1 385:1 396:1 413:1 420:1 427:1 468:1 471:1 473:1 477:1 544:1 587:1 
-0.05212705359368235 0.09491575386134835 46:1 73:1 88:1 111:1 123:1 158:1 175:1 179:1 199:1 248:1 252:1 253:1 259:1 267:1 270:1 275:1 305:1 363:1 372:1 379:1 385:1 386:1 413:1 423:1 447:1 475:1 488:1 517:1 553:1 578:1 
-0.1784859167483933 0.2273532483169021 5:1 55:1 73:1 385:1 475:1 
-0.2067939726449969 0.217638677938303 5:1 55:1 80:1 278:1 385:1 433:1 
-0.07813001137263552 0.08818070525297134 5:1 50:1 55:1 198:1 374:1 385:1 499:1 531:1 545:1 588:1 
-0 0.05842239884649048 5:1 55:1 64:1 156:1 312:1 315:1 385:1 468:1 471:1 477:1 560:1 
-0.0361145791740182 0.06323510422294225 5:1 48:1 55:1 63:1 70:1 174:1 178:1 202:1 215:1 253:1 321:1 373:1 385:1 451:1 466:1 496:1 542:1 559:1 576:1 578:1 
-0 -0.0004290303228524244 21:1 111:1 126:1 158:1 252:1 253:1 259:1 282:1 305:1 365:1 379:1 385:1 447:1 449:1 452:1 454:1 501:1 517:1 520:1 574:1 
-0 -0.01692484842111142 32:1 54:1 55:1 69:1 78:1 91:1 95:1 112:1 116:1 129:1 170:1 179:1 199:1 202:1 234:1 253:1 301:1 306:1 313:1 321:1 322:1 327:1 337:1 345:1 379:1 385:1 389:1 395:1 401:1 410:1 431:1 438:1 445:1 448:1 449:1 468:1 489:1 505:1 517:1 578:1 581:1 582:1 
-0.03127816492193317 -0.02436990088147318 11:1 41:1 70:1 92:1 239:1 252:1 259:1 275:1 373:1 379:1 382:1 385:1 388:1 400:1 410:1 468:1 497:1 553:1 572:1 
-0 -0.01152723480805594 202:1 253:1 385:1 449:1 
-0 -0.008558375625553141 4:1 85:1 123:1 143:1 253:1 315:1 385:1 410:1 449:1 490:1 501:1 517:1 578:1 587:1 
-0.02085442409633956 -0 38:1 85:1 90:1 121:1 185:1 191:1 219:1 224:1 259:1 268:1 301:1 324:1 385:1 410:1 528:1 
-0.04447377396449641 -0.05433951084109159 203:1 385:1 410:1 433:1 510:1 511:1 522:1 
-0.02762107902111888 -0 23:1 50:1 85:1 130:1 137:1 212:1 219:1 234:1 276:1 305:1 360:1 379:1 385:1 394:1 410:1 449:1 455:1 579:1 583:1 
-0.012781722055806 -0.03075880636592287 70:1 163:1 207:1 229:1 253:1 378:1 385:1 414:1 542:1 574:1 
-0.02723623828662642 -0.03832532479295219 65:1 154:1 252:1 305:1 384:1 387:1 542:1 589:1 
-0 -0.03005802682109695 5:1 19:1 55:1 83:1 85:1 111:1 130:1 137:1 182:1 183:1 207:1 224:1 234:1 250:1 252:1 299:1 345:1 361:1 369:1 385:1 510:1 517:1 534:1 571:1 573:1 578:1 579:1 588:1 
-0 -0.03001595946955383 4:1 5:1 19:1 83:1 111:1 132:1 156:1 178:1 179:1 184:1 199:1 229:1 249:1 252:1 253:1 259:1 277:1 299:1 310:1 318:1 345:1 363:1 379:1 382:1 385:1 404:1 425:1 428:1 433:1 449:1 451:1 457:1 468:1 517:1 521:1 540:1 559:1 578:1 
-0.0478048996183161 -0 40:1 79:1 86:1 132:1 145:1 178:1 252:1 258:1 259:1 335:1 385:1 410:1 427:1 455:1 476:1 517:1 560:1 
-0.02616782332387048 -0 8:1 19:1 50:1 83:1 87:1 92:1 96:1 117:1 123:1 129:1 229:1 234:1 237:1 288:1 299:1 326:1 345:1 361:1 366:1 379:1 382:1 385:1 404:1 410:1 423:1 429:1 449:1 486:1 501:1 509:1 517:1 544:1 550:1 553:1 578:1 588:1 
-0 -0.1110180652768594 5:1 55:1 111:1 130:1 137:1 147:1 177:1 182:1 224:1 234:1 385:1 388:1 413:1 447:1 455:1 467:1 553:1 560:1 579:1 
-0.004279558698185122 -0 13:1 107:1 166:1 228:1 335:1 379:1 385:1 470:1 505:1 517:1 524:1 
-0.004287747335810761 -0 27:1 83:1 111:1 230:1 253:1 379:1 385:1 535:1 566:1 
-0.1754429898147604 -0.08151012628592171 205:1 320:1 363:1 385:1 
-0.1029170579594554 -0.02821149022165721 160:1 203:1 215:1 260:1 385:1 468:1 511:1 537:1 
-0.04145938769963574 -0.001748126020787106 224:1 234:1 254:1 315:1 385:1 588:1 589:1 
-0.04183891962568104 -0 19:1 83:1 129:1 142:1 154:1 174:1 219:1 229:1 234:1 237:1 299:1 379:1 382:1 385:1 433:1 449:1 507:1 517:1 549:1 578:1 
-0.06840140127993626 -0.00564158986956694 31:1 50:1 107:1 112:1 132:1 237:1 348:1 379:1 385:1 393:1 395:1 407:1 468:1 525:1 
-0.06612000542162945 -0.0650093413105565 73:1 90:1 166:1 331:1 379:1 385:1 488:1 492:1 506:1 
-0.03475898977599385 -0 197:1 214:1 237:1 253:1 313:1 385:1 449:1 460:1 497:1 
-0.08967871975285921 -0.0007620609542105312 85:1 121:1 157:1 179:1 191:1 237:1 286:1 308:1 385:1 389:1 391:1 513:1 
-0.2127355830278809 -0.04832240893640607 112:1 128:1 368:1 385:1 578:1 
-0.1346020148738183 -0.04904105541989522 103:1 186:1 326:1 385:1 406:1 
-0.0582877600222145 -0 31:1 50:1 85:1 148:1 224:1 234:1 385:1 389:1 423:1 474:1 487:1 570:1 585:1 
-0.02127164452738078 -0.02161436371114346 7:1 123:1 126:1 130:1 137:1 230:1 315:1 385:1 408:1 441:1 517:1 
-0.01737446266211811 -0.0027049314516245 38:1 218:1 301:1 385:1 399:1 449:1 569:1 
-0.03525263537101442 -0 130:1 137:1 162:1 234:1 243:1 259:1 375:1 385:1 434:1 472:1 493:1 515:1 
-0.05905511872057193 -0 44:1 110:1 130:1 137:1 180:1 385:1 404:1 558:1 
-0.0355233236130959 -0.02651541428642745 20:1 47:1 202:1 211:1 253:1 282:1 385:1 
-0.04697858762798482 -0 23:1 75:1 83:1 379:1 382:1 385:1 410:1 433:1 449:1 510:1 557:1 
-0.09128283036192744 -0 83:1 156:1 170:1 203:1 315:1 385:1 407:1 511:1 560:1 
-0 -0.009603763955679013 9:1 76:1 179:1 221:1 230:1 253:1 346:1 376:1 385:1 407:1 432:1 439:1 459:1 523:1 
-0 -0.008293512339685928 2:1 14:1 47:1 144:1 158:1 211:1 230:1 253:1 380:1 385:1 453:1 496:1 556:1 560:1 566:1 
-0 -0.00888884350043298 13:1 25:1 35:1 74:1 85:1 106:1 123:1 142:1 144:1 154:1 194:1 219:1 230:1 242:1 259:1 363:1 385:1 418:1 433:1 449:1 512:1 527:1 538:1 560:1 564:1 
-0.2598459619259567 -0.1001944638630741 5:1 6:1 18:1 166:1 237:1 367:1 379:1 385:1 516:1 
-0.007553930960230287 -0 157:1 222:1 234:1 253:1 259:1 275:1 279:1 295:1 379:1 385:1 418:1 449:1 476:1 484:1 510:1 583:1 
-0.009583511003612492 -0 31:1 34:1 37:1 39:1 81:1 83:1 111:1 161:1 179:1 202:1 219:1 224:1 234:1 282:1 351:1 385:1 410:1 471:1 517:1 561:1 
-0 -0.0147025979959483 24:1 67:1 253:1 256:1 382:1 385:1 
-0.01440830346628892 -0 36:1 38:1 96:1 234:1 237:1 259:1 280:1 290:1 363:1 379:1 382:1 385:1 412:1 433:1 503:1 560:1 
-0.08844908177499697 -0.01273053611920011 4:1 16:1 29:1 38:1 111:1 177:1 259:1 269:1 379:1 385:1 391:1 413:1 465:1 517:1 521:1 578:1 
-0.01834016760544965 -0 83:1 166:1 385:1 449:1 481:1 506:1 
-0.0810235035487052 -0.007868217710304531 83:1 109:1 139:1 156:1 192:1 199:1 349:1 363:1 379:1 385:1 419:1 435:1 449:1 490:1 517:1 562:1 587:1 
-0.04026028310641186 -0 159:1 188:1 235:1 385:1 388:1 449:1 
-0.103689570891776 -0.003181172313309362 221:1 230:1 253:1 300:1 317:1 336:1 378:1 385:1 566:1 
-0.1991203400259323 -0.04913605800776159 253:1 256:1 259:1 385:1 567:1 
-0.1464307790144802 -0.03838827599001128 89:1 235:1 258:1 
-0 -0.02168466173142791 38:1 52:1 83:1 85:1 111:1 123:1 157:1 199:1 253:1 295:1 379:1 382:1 385:1 392:1 413:1 433:1 487:1 
-0 -0.004253106407028166 218:1 253:1 282:1 
-0 -0.04065808780835262 5:1 166:1 246:1 259:1 385:1 403:1 410:1 449:1 474:1 510:1 517:1 560:1 578:1 
