svm_type c_svc
kernel_type linear
nr_class 2
total_sv 97
rho -0.838008
label 0 1
probA -1.35705
probB -0.427194
nr_sv 64 33
SV
0.0645640060491092 18:1 111:1 130:1 137:1 166:1 234:1 379:1 385:1 485:1 506:1 
0.03462593586481157 32:1 54:1 55:1 69:1 78:1 91:1 95:1 112:1 116:1 129:1 170:1 179:1 199:1 202:1 234:1 253:1 301:1 306:1 313:1 321:1 322:1 327:1 337:1 345:1 379:1 385:1 389:1 395:1 401:1 410:1 431:1 438:1 445:1 448:1 449:1 468:1 489:1 505:1 517:1 578:1 581:1 582:1 
0.02362762931907132 74:1 107:1 154:1 183:1 194:1 224:1 240:1 253:1 305:1 326:1 331:1 339:1 363:1 379:1 387:1 418:1 437:1 449:1 491:1 496:1 510:1 512:1 514:1 527:1 
0.07844032015031308 51:1 73:1 155:1 237:1 291:1 349:1 385:1 517:1 584:1 
0.03122036133612255 50:1 61:1 126:1 147:1 153:1 164:1 173:1 215:1 217:1 218:1 237:1 309:1 329:1 367:1 379:1 385:1 432:1 
0.04740167262228918 5:1 25:1 32:1 55:1 60:1 99:1 102:1 135:1 144:1 167:1 190:1 207:1 249:1 354:1 379:1 385:1 410:1 424:1 433:1 510:1 526:1 554:1 
0.001630139895842019 85:1 118:1 130:1 137:1 147:1 178:1 183:1 215:1 221:1 234:1 271:1 304:1 315:1 371:1 385:1 410:1 433:1 468:1 521:1 556:1 563:1 576:1 
0.1191705911913885 46:1 73:1 88:1 111:1 123:1 158:1 175:1 179:1 199:1 248:1 252:1 253:1 259:1 267:1 270:1 275:1 305:1 363:1 372:1 379:1 385:1 386:1 413:1 423:1 447:1 475:1 488:1 517:1 553:1 578:1 
0.03232413807643064 4:1 215:1 220:1 238:1 240:1 262:1 355:1 362:1 379:1 385:1 390:1 490:1 498:1 517:1 
0.0651244038703848 58:1 83:1 85:1 130:1 134:1 137:1 227:1 234:1 385:1 410:1 504:1 551:1 
0.01785258835348133 4:1 85:1 123:1 143:1 253:1 315:1 385:1 410:1 449:1 490:1 501:1 517:1 578:1 587:1 
0.2445368387771842 5:1 55:1 73:1 385:1 475:1 
0.0185060974438558 5:1 55:1 80:1 278:1 385:1 433:1 
0.02681737204347788 70:1 163:1 207:1 229:1 253:1 378:1 385:1 414:1 542:1 574:1 
0.05668201750151589 60:1 63:1 71:1 129:1 147:1 156:1 177:1 189:1 191:1 199:1 211:1 224:1 249:1 259:1 275:1 277:1 344:1 352:1 356:1 367:1 379:1 385:1 387:1 404:1 410:1 432:1 466:1 476:1 488:1 510:1 534:1 554:1 573:1 574:1 
0.138385262929702 5:1 19:1 55:1 83:1 85:1 111:1 130:1 137:1 182:1 183:1 207:1 224:1 234:1 250:1 252:1 299:1 345:1 361:1 369:1 385:1 510:1 517:1 534:1 571:1 573:1 578:1 579:1 588:1 
0.052462910449704 4:1 5:1 19:1 83:1 111:1 132:1 156:1 178:1 179:1 184:1 199:1 229:1 249:1 252:1 253:1 259:1 277:1 299:1 310:1 318:1 345:1 363:1 379:1 382:1 385:1 404:1 425:1 428:1 433:1 449:1 451:1 457:1 468:1 517:1 521:1 540:1 559:1 578:1 
0.002660796387402271 86:1 100:1 118:1 136:1 158:1 209:1 226:1 229:1 234:1 237:1 252:1 260:1 330:1 345:1 361:1 379:1 385:1 388:1 404:1 425:1 449:1 567:1 
0.2236548461303131 85:1 166:1 219:1 258:1 305:1 379:1 385:1 449:1 506:1 
0.02081107554464547 85:1 199:1 222:1 253:1 340:1 379:1 385:1 418:1 449:1 487:1 560:1 
0.05105720555511394 13:1 107:1 166:1 228:1 335:1 379:1 385:1 470:1 505:1 517:1 524:1 
0.09784653746715578 205:1 320:1 363:1 385:1 
0.06630652735409685 96:1 101:1 193:1 274:1 307:1 347:1 385:1 389:1 444:1 462:1 568:1 578:1 
0.06032161930596388 224:1 234:1 254:1 315:1 385:1 588:1 589:1 
0.07547297946970286 13:1 38:1 47:1 49:1 50:1 63:1 71:1 94:1 111:1 115:1 118:1 123:1 126:1 130:1 137:1 142:1 143:1 147:1 154:1 156:1 166:1 211:1 222:1 224:1 229:1 234:1 249:1 253:1 259:1 315:1 323:1 378:1 379:1 385:1 404:1 410:1 413:1 432:1 478:1 506:1 507:1 510:1 558:1 560:1 578:1 
0.07665286824555154 85:1 162:1 196:1 237:1 253:1 385:1 389:1 449:1 480:1 
0.1161500804201469 112:1 128:1 368:1 385:1 578:1 
0.06856966302680094 103:1 186:1 326:1 385:1 406:1 
0.06181229799721371 31:1 50:1 85:1 148:1 224:1 234:1 385:1 389:1 423:1 474:1 487:1 570:1 585:1 
0.0002125476605606983 38:1 218:1 301:1 385:1 399:1 449:1 569:1 
0.03285907708095026 13:1 83:1 146:1 166:1 196:1 198:1 228:1 246:1 260:1 298:1 301:1 330:1 335:1 363:1 385:1 403:1 440:1 468:1 524:1 551:1 
0.008699443433014634 130:1 137:1 162:1 234:1 243:1 259:1 375:1 385:1 434:1 472:1 493:1 515:1 
0.03820160118177594 44:1 110:1 130:1 137:1 180:1 385:1 404:1 558:1 
0.0003985994407492074 13:1 83:1 146:1 166:1 196:1 198:1 228:1 246:1 260:1 298:1 301:1 330:1 335:1 363:1 385:1 403:1 440:1 468:1 524:1 547:1 551:1 
0.05184156198715535 3:1 86:1 130:1 137:1 177:1 229:1 234:1 315:1 385:1 482:1 
0.07460995611387906 5:1 55:1 64:1 156:1 312:1 315:1 385:1 468:1 471:1 477:1 560:1 
0.01789645963644529 31:1 38:1 85:1 86:1 150:1 157:1 199:1 225:1 253:1 268:1 295:1 303:1 311:1 382:1 385:1 387:1 443:1 476:1 490:1 587:1 
0.07815446848167278 31:1 38:1 157:1 179:1 199:1 264:1 268:1 378:1 379:1 381:1 385:1 402:1 410:1 449:1 
0.1666204900283199 23:1 75:1 83:1 379:1 382:1 385:1 410:1 433:1 449:1 510:1 557:1 
0.01158749932009919 74:1 79:1 83:1 105:1 172:1 194:1 253:1 326:1 363:1 385:1 417:1 449:1 512:1 527:1 546:1 560:1 
0.07441968365065262 142:1 174:1 197:1 210:1 245:1 364:1 385:1 464:1 548:1 578:1 579:1 580:1 
0.2209136612189764 85:1 253:1 385:1 404:1 449:1 
0.1205257972942283 38:1 166:1 245:1 253:1 326:1 385:1 395:1 433:1 505:1 506:1 522:1 560:1 578:1 
0.05381902943245515 21:1 132:1 149:1 199:1 207:1 218:1 222:1 234:1 253:1 259:1 272:1 282:1 296:1 363:1 385:1 387:1 388:1 436:1 454:1 455:1 491:1 497:1 502:1 517:1 
0.0140293343901788 2:1 14:1 47:1 144:1 158:1 211:1 230:1 253:1 380:1 385:1 453:1 496:1 556:1 560:1 566:1 
0.08162736927634823 50:1 113:1 119:1 140:1 157:1 203:1 230:1 237:1 295:1 359:1 363:1 379:1 385:1 458:1 549:1 571:1 583:1 
0.01179841863444443 31:1 57:1 130:1 137:1 144:1 211:1 234:1 260:1 332:1 373:1 379:1 385:1 434:1 455:1 472:1 483:1 578:1 
0.02882272787610397 8:1 28:1 122:1 130:1 137:1 180:1 199:1 222:1 234:1 253:1 260:1 379:1 384:1 385:1 418:1 436:1 451:1 517:1 536:1 574:1 
0.1110236554497897 5:1 6:1 18:1 166:1 237:1 367:1 379:1 385:1 516:1 
0.1333498027014157 13:1 146:1 246:1 253:1 259:1 379:1 385:1 388:1 403:1 449:1 502:1 
0.07123121322036335 157:1 222:1 234:1 253:1 259:1 275:1 279:1 295:1 379:1 385:1 418:1 449:1 476:1 484:1 510:1 583:1 
0.03105395946448627 4:1 53:1 85:1 104:1 126:1 151:1 156:1 166:1 169:1 197:1 199:1 215:1 224:1 229:1 234:1 237:1 252:1 263:1 315:1 328:1 334:1 341:1 350:1 355:1 358:1 378:1 379:1 385:1 389:1 404:1 405:1 410:1 423:1 433:1 449:1 474:1 485:1 491:1 517:1 541:1 560:1 571:1 588:1 
0.07158758037633854 31:1 34:1 37:1 39:1 81:1 83:1 111:1 161:1 179:1 202:1 219:1 224:1 234:1 282:1 351:1 385:1 410:1 471:1 517:1 561:1 
0.04384210459926101 15:1 33:1 138:1 153:1 171:1 221:1 259:1 315:1 356:1 367:1 379:1 385:1 404:1 501:1 559:1 578:1 
0.007670951739831415 13:1 110:1 111:1 130:1 137:1 147:1 180:1 216:1 222:1 234:1 259:1 294:1 340:1 379:1 385:1 430:1 436:1 449:1 484:1 495:1 
0.1300590986186399 12:1 24:1 65:1 96:1 123:1 130:1 137:1 166:1 173:1 229:1 234:1 249:1 253:1 259:1 282:1 326:1 378:1 379:1 382:1 385:1 397:1 410:1 507:1 539:1 542:1 555:1 566:1 570:1 574:1 575:1 
0.0134836086109885 26:1 83:1 114:1 166:1 202:1 253:1 313:1 314:1 363:1 385:1 422:1 506:1 522:1 550:1 
0.1143949923079635 221:1 230:1 253:1 300:1 317:1 336:1 378:1 385:1 566:1 
0.02796100751492486 229:1 233:1 234:1 326:1 333:1 379:1 385:1 436:1 505:1 513:1 561:1 578:1 
0.7105398765688871 253:1 256:1 259:1 385:1 567:1 
0.06009365262288011 89:1 235:1 258:1 
0.0746576189729862 56:1 83:1 131:1 218:1 259:1 262:1 273:1 356:1 367:1 379:1 385:1 404:1 579:1 
0.166619056543921 111:1 130:1 137:1 183:1 224:1 229:1 234:1 253:1 258:1 308:1 385:1 410:1 468:1 513:1 542:1 
0.004525576092603085 130:1 137:1 180:1 202:1 253:1 379:1 385:1 449:1 
-0.03134204835188347 5:1 55:1 82:1 123:1 147:1 182:1 183:1 197:1 251:1 252:1 259:1 284:1 379:1 382:1 385:1 388:1 410:1 411:1 413:1 423:1 446:1 456:1 517:1 
-0.198214898099365 5:1 55:1 96:1 126:1 131:1 177:1 207:1 343:1 385:1 466:1 552:1 
-0.1948262430243505 21:1 111:1 126:1 158:1 252:1 253:1 259:1 282:1 305:1 365:1 379:1 385:1 447:1 449:1 452:1 454:1 501:1 517:1 520:1 574:1 
-0.008124174528600456 24:1 84:1 111:1 158:1 175:1 179:1 180:1 183:1 224:1 234:1 252:1 253:1 259:1 275:1 281:1 283:1 340:1 357:1 379:1 385:1 410:1 433:1 443:1 449:1 457:1 517:1 586:1 
-0.02095608948370849 11:1 41:1 70:1 92:1 239:1 252:1 259:1 275:1 373:1 379:1 382:1 385:1 388:1 400:1 410:1 468:1 497:1 553:1 572:1 
-0.1056940234440045 175:1 208:1 219:1 224:1 241:1 293:1 336:1 385:1 386:1 388:1 426:1 465:1 466:1 488:1 530:1 
-0.05608394235226362 84:1 85:1 111:1 158:1 178:1 183:1 196:1 224:1 230:1 234:1 244:1 253:1 281:1 321:1 379:1 382:1 385:1 389:1 423:1 449:1 484:1 510:1 565:1 579:1 
-0.2466609136061742 85:1 130:1 137:1 154:1 169:1 183:1 187:1 224:1 234:1 253:1 258:1 259:1 326:1 379:1 385:1 404:1 410:1 560:1 
-0.02500210798054881 38:1 85:1 90:1 121:1 185:1 191:1 219:1 224:1 259:1 268:1 301:1 324:1 385:1 410:1 528:1 
-0.1265686975508954 23:1 50:1 85:1 130:1 137:1 212:1 219:1 234:1 276:1 305:1 360:1 379:1 385:1 394:1 410:1 449:1 455:1 579:1 583:1 
-0.05871665772041574 22:1 50:1 51:1 66:1 67:1 124:1 230:1 232:1 236:1 259:1 265:1 338:1 349:1 379:1 385:1 463:1 510:1 529:1 571:1 583:1 
-0.2013507901488998 5:1 50:1 55:1 198:1 374:1 385:1 499:1 531:1 545:1 588:1 
-0.00591680469948425 23:1 31:1 38:1 43:1 50:1 68:1 93:1 112:1 126:1 144:1 182:1 207:1 219:1 250:1 252:1 253:1 258:1 259:1 303:1 314:1 345:1 363:1 379:1 385:1 410:1 422:1 424:1 433:1 517:1 560:1 578:1 
-0.04696417562256455 40:1 79:1 86:1 132:1 145:1 178:1 252:1 258:1 259:1 335:1 385:1 410:1 427:1 455:1 476:1 517:1 560:1 
-0.009132353918217921 8:1 19:1 50:1 83:1 87:1 92:1 96:1 117:1 123:1 129:1 229:1 234:1 237:1 288:1 299:1 326:1 345:1 361:1 366:1 379:1 382:1 385:1 404:1 410:1 423:1 429:1 449:1 486:1 501:1 509:1 517:1 544:1 550:1 553:1 578:1 588:1 
-0.05634795140668181 5:1 55:1 111:1 130:1 137:1 147:1 177:1 182:1 224:1 234:1 385:1 388:1 413:1 447:1 455:1 467:1 553:1 560:1 579:1 
-0.08736008915417529 18:1 23:1 50:1 92:1 141:1 157:1 210:1 258:1 369:1 377:1 378:1 379:1 385:1 410:1 462:1 468:1 518:1 560:1 579:1 
-0.1022311518389368 38:1 84:1 86:1 111:1 123:1 130:1 137:1 180:1 234:1 253:1 259:1 281:1 379:1 385:1 388:1 410:1 532:1 533:1 570:1 574:1 588:1 
-0.1144434275072762 13:1 38:1 59:1 68:1 85:1 86:1 112:1 166:1 252:1 259:1 275:1 289:1 297:1 301:1 317:1 345:1 357:1 363:1 379:1 385:1 409:1 449:1 468:1 470:1 479:1 505:1 551:1 553:1 567:1 588:1 
-0.3346609358707814 39:1 129:1 179:1 196:1 222:1 229:1 249:1 253:1 317:1 378:1 379:1 385:1 404:1 478:1 567:1 579:1 
-0.3113301405027066 87:1 336:1 385:1 416:1 451:1 578:1 583:1 
-0.4336111301007634 73:1 90:1 166:1 331:1 379:1 385:1 488:1 492:1 506:1 
-0.2732708362026901 85:1 121:1 157:1 179:1 191:1 237:1 286:1 308:1 385:1 389:1 391:1 513:1 
-0.01362414329284246 10:1 86:1 98:1 147:1 160:1 174:1 178:1 179:1 191:1 197:1 219:1 252:1 253:1 259:1 363:1 385:1 404:1 410:1 421:1 449:1 457:1 465:1 484:1 510:1 566:1 579:1 
-0.7255120850479885 24:1 67:1 253:1 256:1 382:1 385:1 
-0.1008337065572559 5:1 48:1 55:1 63:1 70:1 174:1 178:1 202:1 215:1 253:1 321:1 373:1 385:1 451:1 466:1 496:1 542:1 559:1 576:1 578:1 
-0.214592801457224 54:1 83:1 111:1 147:1 207:1 213:1 223:1 234:1 247:1 253:1 259:1 326:1 363:1 385:1 497:1 550:1 578:1 586:1 
-0.09005020731577279 38:1 83:1 86:1 90:1 130:1 137:1 181:1 183:1 199:1 223:1 224:1 226:1 234:1 259:1 266:1 287:1 302:1 314:1 385:1 410:1 422:1 449:1 499:1 510:1 517:1 567:1 574:1 
-0.1279625201494429 45:1 85:1 87:1 125:1 130:1 137:1 156:1 202:1 234:1 253:1 277:1 315:1 363:1 367:1 386:1 398:1 404:1 410:1 424:1 517:1 542:1 551:1 559:1 588:1 590:1 
-0.08855373396999752 36:1 38:1 96:1 234:1 237:1 259:1 280:1 290:1 363:1 379:1 382:1 385:1 412:1 433:1 503:1 560:1 
-0.07859392037893372 4:1 16:1 29:1 38:1 111:1 177:1 259:1 269:1 379:1 385:1 391:1 413:1 465:1 517:1 521:1 578:1 
-0.3236517348896678 5:1 166:1 246:1 259:1 385:1 403:1 410:1 449:1 474:1 510:1 517:1 560:1 578:1 
-0.02163582814756738 24:1 86:1 96:1 111:1 185:1 224:1 234:1 253:1 258:1 259:1 319:1 379:1 385:1 430:1 510:1 513:1 560:1 
